~o
<STREAMINFO> 1 2
<VECSIZE> 2<NULLD><USER><DIAGC>
~t "T_dot"
<TRANSP> 5
 0.000000e+000 1.000000e+000 0.000000e+000 0.000000e+000 0.000000e+000
 0.000000e+000 0.000000e+000 1.000000e+000 0.000000e+000 0.000000e+000
 0.000000e+000 0.000000e+000 7.000000e-001 3.000000e-001 0.000000e+000
 0.000000e+000 0.000000e+000 0.000000e+000 0.000000e+000 1.000000e+000
 0.000000e+000 0.000000e+000 0.000000e+000 0.000000e+000 0.000000e+000
~t "T_sil"
<TRANSP> 5
 0.000000e+000 1.000000e+000 0.000000e+000 0.000000e+000 0.000000e+000
 0.000000e+000 0.000000e+000 1.000000e+000 0.000000e+000 0.000000e+000
 0.000000e+000 0.000000e+000 0.000000e+000 1.000000e+000 0.000000e+000
 0.000000e+000 0.000000e+000 0.000000e+000 0.000000e+000 1.000000e+000
 0.000000e+000 0.000000e+000 0.000000e+000 0.000000e+000 0.000000e+000
~t "T_spc"
<TRANSP> 5
 0.000000e+000 1.000000e+000 0.000000e+000 0.000000e+000 0.000000e+000
 0.000000e+000 0.000000e+000 1.000000e+000 0.000000e+000 0.000000e+000
 0.000000e+000 0.000000e+000 6.658416e-001 3.341585e-001 0.000000e+000
 0.000000e+000 0.000000e+000 0.000000e+000 0.000000e+000 1.000000e+000
 0.000000e+000 0.000000e+000 0.000000e+000 0.000000e+000 0.000000e+000
~t "T_a"
<TRANSP> 5
 0.000000e+000 1.000000e+000 0.000000e+000 0.000000e+000 0.000000e+000
 0.000000e+000 0.000000e+000 1.000000e+000 0.000000e+000 0.000000e+000
 0.000000e+000 0.000000e+000 6.653280e-001 3.346720e-001 0.000000e+000
 0.000000e+000 0.000000e+000 0.000000e+000 0.000000e+000 1.000000e+000
 0.000000e+000 0.000000e+000 0.000000e+000 0.000000e+000 0.000000e+000
~t "T_b"
<TRANSP> 5
 0.000000e+000 1.000000e+000 0.000000e+000 0.000000e+000 0.000000e+000
 0.000000e+000 0.000000e+000 1.000000e+000 0.000000e+000 0.000000e+000
 0.000000e+000 0.000000e+000 6.666667e-001 3.333333e-001 0.000000e+000
 0.000000e+000 0.000000e+000 0.000000e+000 0.000000e+000 1.000000e+000
 0.000000e+000 0.000000e+000 0.000000e+000 0.000000e+000 0.000000e+000
~t "T_c"
<TRANSP> 5
 0.000000e+000 1.000000e+000 0.000000e+000 0.000000e+000 0.000000e+000
 0.000000e+000 0.000000e+000 1.000000e+000 0.000000e+000 0.000000e+000
 0.000000e+000 0.000000e+000 6.666667e-001 3.333333e-001 0.000000e+000
 0.000000e+000 0.000000e+000 0.000000e+000 0.000000e+000 1.000000e+000
 0.000000e+000 0.000000e+000 0.000000e+000 0.000000e+000 0.000000e+000
~t "T_d"
<TRANSP> 5
 0.000000e+000 1.000000e+000 0.000000e+000 0.000000e+000 0.000000e+000
 0.000000e+000 0.000000e+000 1.000000e+000 0.000000e+000 0.000000e+000
 0.000000e+000 0.000000e+000 6.666667e-001 3.333333e-001 0.000000e+000
 0.000000e+000 0.000000e+000 0.000000e+000 0.000000e+000 1.000000e+000
 0.000000e+000 0.000000e+000 0.000000e+000 0.000000e+000 0.000000e+000
~t "T_e"
<TRANSP> 5
 0.000000e+000 1.000000e+000 0.000000e+000 0.000000e+000 0.000000e+000
 0.000000e+000 0.000000e+000 1.000000e+000 0.000000e+000 0.000000e+000
 0.000000e+000 0.000000e+000 6.662946e-001 3.337053e-001 0.000000e+000
 0.000000e+000 0.000000e+000 0.000000e+000 0.000000e+000 1.000000e+000
 0.000000e+000 0.000000e+000 0.000000e+000 0.000000e+000 0.000000e+000
~t "T_f"
<TRANSP> 5
 0.000000e+000 1.000000e+000 0.000000e+000 0.000000e+000 0.000000e+000
 0.000000e+000 0.000000e+000 1.000000e+000 0.000000e+000 0.000000e+000
 0.000000e+000 0.000000e+000 6.666667e-001 3.333333e-001 0.000000e+000
 0.000000e+000 0.000000e+000 0.000000e+000 0.000000e+000 1.000000e+000
 0.000000e+000 0.000000e+000 0.000000e+000 0.000000e+000 0.000000e+000
~t "T_g"
<TRANSP> 5
 0.000000e+000 1.000000e+000 0.000000e+000 0.000000e+000 0.000000e+000
 0.000000e+000 0.000000e+000 1.000000e+000 0.000000e+000 0.000000e+000
 0.000000e+000 0.000000e+000 6.666667e-001 3.333333e-001 0.000000e+000
 0.000000e+000 0.000000e+000 0.000000e+000 0.000000e+000 1.000000e+000
 0.000000e+000 0.000000e+000 0.000000e+000 0.000000e+000 0.000000e+000
~t "T_h"
<TRANSP> 5
 0.000000e+000 1.000000e+000 0.000000e+000 0.000000e+000 0.000000e+000
 0.000000e+000 0.000000e+000 1.000000e+000 0.000000e+000 0.000000e+000
 0.000000e+000 0.000000e+000 6.666667e-001 3.333333e-001 0.000000e+000
 0.000000e+000 0.000000e+000 0.000000e+000 0.000000e+000 1.000000e+000
 0.000000e+000 0.000000e+000 0.000000e+000 0.000000e+000 0.000000e+000
~t "T_i"
<TRANSP> 5
 0.000000e+000 1.000000e+000 0.000000e+000 0.000000e+000 0.000000e+000
 0.000000e+000 0.000000e+000 1.000000e+000 0.000000e+000 0.000000e+000
 0.000000e+000 0.000000e+000 6.656347e-001 3.343653e-001 0.000000e+000
 0.000000e+000 0.000000e+000 0.000000e+000 0.000000e+000 1.000000e+000
 0.000000e+000 0.000000e+000 0.000000e+000 0.000000e+000 0.000000e+000
~t "T_j"
<TRANSP> 5
 0.000000e+000 1.000000e+000 0.000000e+000 0.000000e+000 0.000000e+000
 0.000000e+000 0.000000e+000 1.000000e+000 0.000000e+000 0.000000e+000
 0.000000e+000 0.000000e+000 6.666667e-001 3.333333e-001 0.000000e+000
 0.000000e+000 0.000000e+000 0.000000e+000 0.000000e+000 1.000000e+000
 0.000000e+000 0.000000e+000 0.000000e+000 0.000000e+000 0.000000e+000
~t "T_k"
<TRANSP> 5
 0.000000e+000 1.000000e+000 0.000000e+000 0.000000e+000 0.000000e+000
 0.000000e+000 0.000000e+000 1.000000e+000 0.000000e+000 0.000000e+000
 0.000000e+000 0.000000e+000 6.666667e-001 3.333333e-001 0.000000e+000
 0.000000e+000 0.000000e+000 0.000000e+000 0.000000e+000 1.000000e+000
 0.000000e+000 0.000000e+000 0.000000e+000 0.000000e+000 0.000000e+000
~t "T_l"
<TRANSP> 5
 0.000000e+000 1.000000e+000 0.000000e+000 0.000000e+000 0.000000e+000
 0.000000e+000 0.000000e+000 1.000000e+000 0.000000e+000 0.000000e+000
 0.000000e+000 0.000000e+000 6.666667e-001 3.333333e-001 0.000000e+000
 0.000000e+000 0.000000e+000 0.000000e+000 0.000000e+000 1.000000e+000
 0.000000e+000 0.000000e+000 0.000000e+000 0.000000e+000 0.000000e+000
~t "T_m"
<TRANSP> 5
 0.000000e+000 1.000000e+000 0.000000e+000 0.000000e+000 0.000000e+000
 0.000000e+000 0.000000e+000 1.000000e+000 0.000000e+000 0.000000e+000
 0.000000e+000 0.000000e+000 6.655518e-001 3.344482e-001 0.000000e+000
 0.000000e+000 0.000000e+000 0.000000e+000 0.000000e+000 1.000000e+000
 0.000000e+000 0.000000e+000 0.000000e+000 0.000000e+000 0.000000e+000
~t "T_n"
<TRANSP> 5
 0.000000e+000 1.000000e+000 0.000000e+000 0.000000e+000 0.000000e+000
 0.000000e+000 0.000000e+000 1.000000e+000 0.000000e+000 0.000000e+000
 0.000000e+000 0.000000e+000 6.666667e-001 3.333333e-001 0.000000e+000
 0.000000e+000 0.000000e+000 0.000000e+000 0.000000e+000 1.000000e+000
 0.000000e+000 0.000000e+000 0.000000e+000 0.000000e+000 0.000000e+000
~t "T_o"
<TRANSP> 5
 0.000000e+000 1.000000e+000 0.000000e+000 0.000000e+000 0.000000e+000
 0.000000e+000 0.000000e+000 1.000000e+000 0.000000e+000 0.000000e+000
 0.000000e+000 0.000000e+000 6.666667e-001 3.333333e-001 0.000000e+000
 0.000000e+000 0.000000e+000 0.000000e+000 0.000000e+000 1.000000e+000
 0.000000e+000 0.000000e+000 0.000000e+000 0.000000e+000 0.000000e+000
~t "T_p"
<TRANSP> 5
 0.000000e+000 1.000000e+000 0.000000e+000 0.000000e+000 0.000000e+000
 0.000000e+000 0.000000e+000 1.000000e+000 0.000000e+000 0.000000e+000
 0.000000e+000 0.000000e+000 6.666667e-001 3.333333e-001 0.000000e+000
 0.000000e+000 0.000000e+000 0.000000e+000 0.000000e+000 1.000000e+000
 0.000000e+000 0.000000e+000 0.000000e+000 0.000000e+000 0.000000e+000
~t "T_q"
<TRANSP> 5
 0.000000e+000 1.000000e+000 0.000000e+000 0.000000e+000 0.000000e+000
 0.000000e+000 0.000000e+000 1.000000e+000 0.000000e+000 0.000000e+000
 0.000000e+000 0.000000e+000 6.650246e-001 3.349754e-001 0.000000e+000
 0.000000e+000 0.000000e+000 0.000000e+000 0.000000e+000 1.000000e+000
 0.000000e+000 0.000000e+000 0.000000e+000 0.000000e+000 0.000000e+000
~t "T_r"
<TRANSP> 5
 0.000000e+000 1.000000e+000 0.000000e+000 0.000000e+000 0.000000e+000
 0.000000e+000 0.000000e+000 1.000000e+000 0.000000e+000 0.000000e+000
 0.000000e+000 0.000000e+000 6.666667e-001 3.333333e-001 0.000000e+000
 0.000000e+000 0.000000e+000 0.000000e+000 0.000000e+000 1.000000e+000
 0.000000e+000 0.000000e+000 0.000000e+000 0.000000e+000 0.000000e+000
~t "T_s"
<TRANSP> 5
 0.000000e+000 1.000000e+000 0.000000e+000 0.000000e+000 0.000000e+000
 0.000000e+000 0.000000e+000 1.000000e+000 0.000000e+000 0.000000e+000
 0.000000e+000 0.000000e+000 6.656805e-001 3.343195e-001 0.000000e+000
 0.000000e+000 0.000000e+000 0.000000e+000 0.000000e+000 1.000000e+000
 0.000000e+000 0.000000e+000 0.000000e+000 0.000000e+000 0.000000e+000
~t "T_t"
<TRANSP> 5
 0.000000e+000 1.000000e+000 0.000000e+000 0.000000e+000 0.000000e+000
 0.000000e+000 0.000000e+000 1.000000e+000 0.000000e+000 0.000000e+000
 0.000000e+000 0.000000e+000 6.654804e-001 3.345196e-001 0.000000e+000
 0.000000e+000 0.000000e+000 0.000000e+000 0.000000e+000 1.000000e+000
 0.000000e+000 0.000000e+000 0.000000e+000 0.000000e+000 0.000000e+000
~t "T_u"
<TRANSP> 5
 0.000000e+000 1.000000e+000 0.000000e+000 0.000000e+000 0.000000e+000
 0.000000e+000 0.000000e+000 1.000000e+000 0.000000e+000 0.000000e+000
 0.000000e+000 0.000000e+000 6.666667e-001 3.333333e-001 0.000000e+000
 0.000000e+000 0.000000e+000 0.000000e+000 0.000000e+000 1.000000e+000
 0.000000e+000 0.000000e+000 0.000000e+000 0.000000e+000 0.000000e+000
~t "T_v"
<TRANSP> 5
 0.000000e+000 1.000000e+000 0.000000e+000 0.000000e+000 0.000000e+000
 0.000000e+000 0.000000e+000 1.000000e+000 0.000000e+000 0.000000e+000
 0.000000e+000 0.000000e+000 6.666667e-001 3.333333e-001 0.000000e+000
 0.000000e+000 0.000000e+000 0.000000e+000 0.000000e+000 1.000000e+000
 0.000000e+000 0.000000e+000 0.000000e+000 0.000000e+000 0.000000e+000
~t "T_w"
<TRANSP> 5
 0.000000e+000 1.000000e+000 0.000000e+000 0.000000e+000 0.000000e+000
 0.000000e+000 0.000000e+000 1.000000e+000 0.000000e+000 0.000000e+000
 0.000000e+000 0.000000e+000 6.666667e-001 3.333333e-001 0.000000e+000
 0.000000e+000 0.000000e+000 0.000000e+000 0.000000e+000 1.000000e+000
 0.000000e+000 0.000000e+000 0.000000e+000 0.000000e+000 0.000000e+000
~t "T_x"
<TRANSP> 5
 0.000000e+000 1.000000e+000 0.000000e+000 0.000000e+000 0.000000e+000
 0.000000e+000 0.000000e+000 1.000000e+000 0.000000e+000 0.000000e+000
 0.000000e+000 0.000000e+000 7.000000e-001 3.000000e-001 0.000000e+000
 0.000000e+000 0.000000e+000 0.000000e+000 0.000000e+000 1.000000e+000
 0.000000e+000 0.000000e+000 0.000000e+000 0.000000e+000 0.000000e+000
~t "T_y"
<TRANSP> 5
 0.000000e+000 1.000000e+000 0.000000e+000 0.000000e+000 0.000000e+000
 0.000000e+000 0.000000e+000 1.000000e+000 0.000000e+000 0.000000e+000
 0.000000e+000 0.000000e+000 6.647059e-001 3.352942e-001 0.000000e+000
 0.000000e+000 0.000000e+000 0.000000e+000 0.000000e+000 1.000000e+000
 0.000000e+000 0.000000e+000 0.000000e+000 0.000000e+000 0.000000e+000
~t "T_z"
<TRANSP> 5
 0.000000e+000 1.000000e+000 0.000000e+000 0.000000e+000 0.000000e+000
 0.000000e+000 0.000000e+000 1.000000e+000 0.000000e+000 0.000000e+000
 0.000000e+000 0.000000e+000 6.666667e-001 3.333333e-001 0.000000e+000
 0.000000e+000 0.000000e+000 0.000000e+000 0.000000e+000 1.000000e+000
 0.000000e+000 0.000000e+000 0.000000e+000 0.000000e+000 0.000000e+000
~t "T_{"
<TRANSP> 5
 0.000000e+000 1.000000e+000 0.000000e+000 0.000000e+000 0.000000e+000
 0.000000e+000 0.000000e+000 1.000000e+000 0.000000e+000 0.000000e+000
 0.000000e+000 0.000000e+000 6.666667e-001 3.333333e-001 0.000000e+000
 0.000000e+000 0.000000e+000 0.000000e+000 0.000000e+000 1.000000e+000
 0.000000e+000 0.000000e+000 0.000000e+000 0.000000e+000 0.000000e+000
~v "varFloor1"
<VARIANCE> 2
 1.000000e+002 1.000000e+002
~s "k_s21"
<NUMMIXES> 2
<MIXTURE> 1 5.000000e-001
<MEAN> 2
 -5.000000e+002 -5.000000e+002
<VARIANCE> 2
 1.000000e+002 1.000000e+002
<GCONST> 1.288609e+001
<MIXTURE> 2 5.000000e-001
<MEAN> 2
 -5.000000e+002 -5.000000e+002
<VARIANCE> 2
 1.000000e+002 1.000000e+002
<GCONST> 1.288609e+001
~s "k_s31"
<NUMMIXES> 2
<MIXTURE> 1 5.691376e-001
<MEAN> 2
 2.570000e+002 6.600000e+001
<VARIANCE> 2
 1.000000e+002 1.000000e+002
<GCONST> 1.288609e+001
<MIXTURE> 2 4.308624e-001
<MEAN> 2
 2.570000e+002 6.600000e+001
<VARIANCE> 2
 1.000000e+002 1.000000e+002
<GCONST> 1.288609e+001
~s "k_s41"
<NUMMIXES> 2
<MIXTURE> 1 5.000000e-001
<MEAN> 2
 -5.000000e+002 -5.000000e+002
<VARIANCE> 2
 1.000000e+002 1.000000e+002
<GCONST> 1.288609e+001
<MIXTURE> 2 5.000000e-001
<MEAN> 2
 -5.000000e+002 -5.000000e+002
<VARIANCE> 2
 1.000000e+002 1.000000e+002
<GCONST> 1.288609e+001
~s "x_s21"
<NUMMIXES> 2
<MIXTURE> 1 5.000000e-001
<MEAN> 2
 -4.940000e+002 -4.920000e+002
<VARIANCE> 2
 9.000000e+002 1.600000e+003
<GCONST> 1.785591e+001
<MIXTURE> 2 5.000000e-001
<MEAN> 2
 -5.060000e+002 -5.080000e+002
<VARIANCE> 2
 9.000000e+002 1.600000e+003
<GCONST> 1.785591e+001
~s "x_s31"
<NUMMIXES> 2
<MIXTURE> 1 5.000000e-001
<MEAN> 2
 1.145000e+002 1.145000e+002
<VARIANCE> 2
 9.000000e+002 1.600000e+003
<GCONST> 1.785591e+001
<MIXTURE> 2 5.000000e-001
<MEAN> 2
 1.025000e+002 9.850000e+001
<VARIANCE> 2
 9.000000e+002 1.600000e+003
<GCONST> 1.785591e+001
~s "x_s41"
<NUMMIXES> 2
<MIXTURE> 1 5.000000e-001
<MEAN> 2
 -4.940000e+002 -4.920000e+002
<VARIANCE> 2
 9.000000e+002 1.600000e+003
<GCONST> 1.785591e+001
<MIXTURE> 2 5.000000e-001
<MEAN> 2
 -5.060000e+002 -5.080000e+002
<VARIANCE> 2
 9.000000e+002 1.600000e+003
<GCONST> 1.785591e+001
~s "a_s21"
<NUMMIXES> 2
<MIXTURE> 1 5.000000e-001
<MEAN> 2
 -5.000000e+002 -5.000000e+002
<VARIANCE> 2
 1.000000e+002 1.000000e+002
<GCONST> 1.288609e+001
<MIXTURE> 2 5.000000e-001
<MEAN> 2
 -5.000000e+002 -5.000000e+002
<VARIANCE> 2
 1.000000e+002 1.000000e+002
<GCONST> 1.288609e+001
~s "a_s31"
<NUMMIXES> 2
<MIXTURE> 1 4.969515e-001
<MEAN> 2
 5.690144e+001 6.026569e+001
<VARIANCE> 2
 1.841563e+002 1.171036e+002
<GCONST> 1.365460e+001
<MIXTURE> 2 5.030485e-001
<MEAN> 2
 5.506158e+001 6.026178e+001
<VARIANCE> 2
 1.100982e+002 1.000000e+002
<GCONST> 1.298230e+001
~s "a_s41"
<NUMMIXES> 2
<MIXTURE> 1 5.000000e-001
<MEAN> 2
 -5.000000e+002 -5.000000e+002
<VARIANCE> 2
 1.000000e+002 1.000000e+002
<GCONST> 1.288609e+001
<MIXTURE> 2 5.000000e-001
<MEAN> 2
 -5.000000e+002 -5.000000e+002
<VARIANCE> 2
 1.000000e+002 1.000000e+002
<GCONST> 1.288609e+001
~s "n_s21"
<NUMMIXES> 2
<MIXTURE> 1 5.000000e-001
<MEAN> 2
 -5.000000e+002 -5.000000e+002
<VARIANCE> 2
 1.000000e+002 1.000000e+002
<GCONST> 1.288609e+001
<MIXTURE> 2 5.000000e-001
<MEAN> 2
 -5.000000e+002 -5.000000e+002
<VARIANCE> 2
 1.000000e+002 1.000000e+002
<GCONST> 1.288609e+001
~s "n_s31"
<NUMMIXES> 2
<MIXTURE> 1 5.003912e-001
<MEAN> 2
 2.257755e+002 1.027647e+002
<VARIANCE> 2
 1.070869e+002 1.619941e+002
<GCONST> 1.343695e+001
<MIXTURE> 2 4.996088e-001
<MEAN> 2
 2.249391e+002 1.016997e+002
<VARIANCE> 2
 1.070366e+002 1.863152e+002
<GCONST> 1.357636e+001
~s "n_s41"
<NUMMIXES> 2
<MIXTURE> 1 5.000000e-001
<MEAN> 2
 -5.000000e+002 -5.000000e+002
<VARIANCE> 2
 1.000000e+002 1.000000e+002
<GCONST> 1.288609e+001
<MIXTURE> 2 5.000000e-001
<MEAN> 2
 -5.000000e+002 -5.000000e+002
<VARIANCE> 2
 1.000000e+002 1.000000e+002
<GCONST> 1.288609e+001
~s "d_s21"
<NUMMIXES> 2
<MIXTURE> 1 5.000000e-001
<MEAN> 2
 -5.000000e+002 -5.000000e+002
<VARIANCE> 2
 1.000000e+002 1.000000e+002
<GCONST> 1.288609e+001
<MIXTURE> 2 5.000000e-001
<MEAN> 2
 -5.000000e+002 -5.000000e+002
<VARIANCE> 2
 1.000000e+002 1.000000e+002
<GCONST> 1.288609e+001
~s "d_s31"
<NUMMIXES> 2
<MIXTURE> 1 4.986749e-001
<MEAN> 2
 1.103592e+002 5.884595e+001
<VARIANCE> 2
 1.421855e+002 2.397404e+002
<GCONST> 1.411244e+001
<MIXTURE> 2 5.013252e-001
<MEAN> 2
 1.061773e+002 5.945831e+001
<VARIANCE> 2
 3.212813e+002 2.342281e+002
<GCONST> 1.490437e+001
~s "d_s41"
<NUMMIXES> 2
<MIXTURE> 1 5.000000e-001
<MEAN> 2
 -5.000000e+002 -5.000000e+002
<VARIANCE> 2
 1.000000e+002 1.000000e+002
<GCONST> 1.288609e+001
<MIXTURE> 2 5.000000e-001
<MEAN> 2
 -5.000000e+002 -5.000000e+002
<VARIANCE> 2
 1.000000e+002 1.000000e+002
<GCONST> 1.288609e+001
~s "q_s21"
<NUMMIXES> 2
<MIXTURE> 1 5.000000e-001
<MEAN> 2
 -5.000000e+002 -5.000000e+002
<VARIANCE> 2
 1.000000e+002 1.000000e+002
<GCONST> 1.288609e+001
<MIXTURE> 2 5.000000e-001
<MEAN> 2
 -5.000000e+002 -5.000000e+002
<VARIANCE> 2
 1.000000e+002 1.000000e+002
<GCONST> 1.288609e+001
~s "q_s31"
<NUMMIXES> 2
<MIXTURE> 1 3.331561e-001
<MEAN> 2
 5.525766e+001 2.161662e+001
<VARIANCE> 2
 1.000000e+002 4.057277e+002
<GCONST> 1.428661e+001
<MIXTURE> 2 6.668438e-001
<MEAN> 2
 5.383706e+001 1.629655e+001
<VARIANCE> 2
 1.000000e+002 1.000000e+002
<GCONST> 1.288609e+001
~s "q_s41"
<NUMMIXES> 2
<MIXTURE> 1 5.000000e-001
<MEAN> 2
 -5.000000e+002 -5.000000e+002
<VARIANCE> 2
 1.000000e+002 1.000000e+002
<GCONST> 1.288609e+001
<MIXTURE> 2 5.000000e-001
<MEAN> 2
 -5.000000e+002 -5.000000e+002
<VARIANCE> 2
 1.000000e+002 1.000000e+002
<GCONST> 1.288609e+001
~s "g_s21"
<NUMMIXES> 2
<MIXTURE> 1 5.000000e-001
<MEAN> 2
 -5.000000e+002 -5.000000e+002
<VARIANCE> 2
 1.000000e+002 1.000000e+002
<GCONST> 1.288609e+001
<MIXTURE> 2 5.000000e-001
<MEAN> 2
 -5.000000e+002 -5.000000e+002
<VARIANCE> 2
 1.000000e+002 1.000000e+002
<GCONST> 1.288609e+001
~s "g_s31"
<NUMMIXES> 2
<MIXTURE> 1 6.882355e-001
<MEAN> 2
 1.651220e+002 5.838696e+001
<VARIANCE> 2
 1.000000e+002 1.000000e+002
<GCONST> 1.288609e+001
<MIXTURE> 2 3.117644e-001
<MEAN> 2
 1.537182e+002 5.238789e+001
<VARIANCE> 2
 3.864850e+002 3.571974e+002
<GCONST> 1.551114e+001
~s "g_s41"
<NUMMIXES> 2
<MIXTURE> 1 5.000000e-001
<MEAN> 2
 -5.000000e+002 -5.000000e+002
<VARIANCE> 2
 1.000000e+002 1.000000e+002
<GCONST> 1.288609e+001
<MIXTURE> 2 5.000000e-001
<MEAN> 2
 -5.000000e+002 -5.000000e+002
<VARIANCE> 2
 1.000000e+002 1.000000e+002
<GCONST> 1.288609e+001
~s "t_s21"
<NUMMIXES> 2
<MIXTURE> 1 5.000000e-001
<MEAN> 2
 -5.000000e+002 -5.000000e+002
<VARIANCE> 2
 1.000000e+002 1.000000e+002
<GCONST> 1.288609e+001
<MIXTURE> 2 5.000000e-001
<MEAN> 2
 -5.000000e+002 -5.000000e+002
<VARIANCE> 2
 1.000000e+002 1.000000e+002
<GCONST> 1.288609e+001
~s "t_s31"
<NUMMIXES> 2
<MIXTURE> 1 3.753250e-001
<MEAN> 2
 1.724690e+002 1.917849e+001
<VARIANCE> 2
 2.373922e+002 2.676239e+002
<GCONST> 1.473505e+001
<MIXTURE> 2 6.246744e-001
<MEAN> 2
 1.650870e+002 1.413014e+001
<VARIANCE> 2
 1.970180e+002 1.000000e+002
<GCONST> 1.356422e+001
~s "t_s41"
<NUMMIXES> 2
<MIXTURE> 1 5.000000e-001
<MEAN> 2
 -5.000000e+002 -5.000000e+002
<VARIANCE> 2
 1.000000e+002 1.000000e+002
<GCONST> 1.288609e+001
<MIXTURE> 2 5.000000e-001
<MEAN> 2
 -5.000000e+002 -5.000000e+002
<VARIANCE> 2
 1.000000e+002 1.000000e+002
<GCONST> 1.288609e+001
~s "j_s21"
<NUMMIXES> 2
<MIXTURE> 1 5.000000e-001
<MEAN> 2
 -5.000000e+002 -5.000000e+002
<VARIANCE> 2
 1.000000e+002 1.000000e+002
<GCONST> 1.288609e+001
<MIXTURE> 2 5.000000e-001
<MEAN> 2
 -5.000000e+002 -5.000000e+002
<VARIANCE> 2
 1.000000e+002 1.000000e+002
<GCONST> 1.288609e+001
~s "j_s31"
<NUMMIXES> 2
<MIXTURE> 1 2.451406e-001
<MEAN> 2
 2.247349e+002 7.202576e+001
<VARIANCE> 2
 1.967924e+002 9.636755e+002
<GCONST> 1.582866e+001
<MIXTURE> 2 7.548594e-001
<MEAN> 2
 2.149052e+002 5.710046e+001
<VARIANCE> 2
 1.000000e+002 1.000000e+002
<GCONST> 1.288609e+001
~s "j_s41"
<NUMMIXES> 2
<MIXTURE> 1 5.000000e-001
<MEAN> 2
 -5.000000e+002 -5.000000e+002
<VARIANCE> 2
 1.000000e+002 1.000000e+002
<GCONST> 1.288609e+001
<MIXTURE> 2 5.000000e-001
<MEAN> 2
 -5.000000e+002 -5.000000e+002
<VARIANCE> 2
 1.000000e+002 1.000000e+002
<GCONST> 1.288609e+001
~s "w_s21"
<NUMMIXES> 2
<MIXTURE> 1 5.000000e-001
<MEAN> 2
 -5.000000e+002 -5.000000e+002
<VARIANCE> 2
 1.000000e+002 1.000000e+002
<GCONST> 1.288609e+001
<MIXTURE> 2 5.000000e-001
<MEAN> 2
 -5.000000e+002 -5.000000e+002
<VARIANCE> 2
 1.000000e+002 1.000000e+002
<GCONST> 1.288609e+001
~s "w_s31"
<NUMMIXES> 2
<MIXTURE> 1 4.995325e-001
<MEAN> 2
 8.825262e+001 1.254674e+001
<VARIANCE> 2
 1.000000e+002 1.000000e+002
<GCONST> 1.288609e+001
<MIXTURE> 2 5.004675e-001
<MEAN> 2
 8.774785e+001 1.245335e+001
<VARIANCE> 2
 1.000000e+002 1.000000e+002
<GCONST> 1.288609e+001
~s "w_s41"
<NUMMIXES> 2
<MIXTURE> 1 5.000000e-001
<MEAN> 2
 -5.000000e+002 -5.000000e+002
<VARIANCE> 2
 1.000000e+002 1.000000e+002
<GCONST> 1.288609e+001
<MIXTURE> 2 5.000000e-001
<MEAN> 2
 -5.000000e+002 -5.000000e+002
<VARIANCE> 2
 1.000000e+002 1.000000e+002
<GCONST> 1.288609e+001
~s "m_s21"
<NUMMIXES> 2
<MIXTURE> 1 5.000000e-001
<MEAN> 2
 -5.000000e+002 -5.000000e+002
<VARIANCE> 2
 1.000000e+002 1.000000e+002
<GCONST> 1.288609e+001
<MIXTURE> 2 5.000000e-001
<MEAN> 2
 -5.000000e+002 -5.000000e+002
<VARIANCE> 2
 1.000000e+002 1.000000e+002
<GCONST> 1.288609e+001
~s "m_s31"
<NUMMIXES> 2
<MIXTURE> 1 5.824381e-001
<MEAN> 2
 2.566708e+002 1.044986e+002
<VARIANCE> 2
 1.944039e+002 1.736505e+002
<GCONST> 1.410274e+001
<MIXTURE> 2 4.175620e-001
<MEAN> 2
 2.498742e+002 9.594372e+001
<VARIANCE> 2
 3.478326e+002 7.413737e+002
<GCONST> 1.613598e+001
~s "m_s41"
<NUMMIXES> 2
<MIXTURE> 1 5.000000e-001
<MEAN> 2
 -5.000000e+002 -5.000000e+002
<VARIANCE> 2
 1.000000e+002 1.000000e+002
<GCONST> 1.288609e+001
<MIXTURE> 2 5.000000e-001
<MEAN> 2
 -5.000000e+002 -5.000000e+002
<VARIANCE> 2
 1.000000e+002 1.000000e+002
<GCONST> 1.288609e+001
~s "z_s21"
<NUMMIXES> 2
<MIXTURE> 1 5.000000e-001
<MEAN> 2
 -5.000000e+002 -5.000000e+002
<VARIANCE> 2
 1.000000e+002 1.000000e+002
<GCONST> 1.288609e+001
<MIXTURE> 2 5.000000e-001
<MEAN> 2
 -5.000000e+002 -5.000000e+002
<VARIANCE> 2
 1.000000e+002 1.000000e+002
<GCONST> 1.288609e+001
~s "z_s31"
<NUMMIXES> 2
<MIXTURE> 1 5.088368e-001
<MEAN> 2
 1.030332e+002 9.013148e+001
<VARIANCE> 2
 1.000000e+002 1.000000e+002
<GCONST> 1.288609e+001
<MIXTURE> 2 4.911631e-001
<MEAN> 2
 9.945917e+001 8.918513e+001
<VARIANCE> 2
 1.162131e+002 1.000000e+002
<GCONST> 1.303635e+001
~s "z_s41"
<NUMMIXES> 2
<MIXTURE> 1 5.000000e-001
<MEAN> 2
 -5.000000e+002 -5.000000e+002
<VARIANCE> 2
 1.000000e+002 1.000000e+002
<GCONST> 1.288609e+001
<MIXTURE> 2 5.000000e-001
<MEAN> 2
 -5.000000e+002 -5.000000e+002
<VARIANCE> 2
 1.000000e+002 1.000000e+002
<GCONST> 1.288609e+001
~s "c_s21"
<NUMMIXES> 2
<MIXTURE> 1 5.000000e-001
<MEAN> 2
 -5.000000e+002 -5.000000e+002
<VARIANCE> 2
 1.000000e+002 1.000000e+002
<GCONST> 1.288609e+001
<MIXTURE> 2 5.000000e-001
<MEAN> 2
 -5.000000e+002 -5.000000e+002
<VARIANCE> 2
 1.000000e+002 1.000000e+002
<GCONST> 1.288609e+001
~s "c_s31"
<NUMMIXES> 2
<MIXTURE> 1 5.229743e-001
<MEAN> 2
 1.478459e+002 1.040480e+002
<VARIANCE> 2
 1.000000e+002 1.845421e+002
<GCONST> 1.349880e+001
<MIXTURE> 2 4.770256e-001
<MEAN> 2
 1.441102e+002 9.773276e+001
<VARIANCE> 2
 2.575403e+002 3.712416e+002
<GCONST> 1.514378e+001
~s "c_s41"
<NUMMIXES> 2
<MIXTURE> 1 5.000000e-001
<MEAN> 2
 -5.000000e+002 -5.000000e+002
<VARIANCE> 2
 1.000000e+002 1.000000e+002
<GCONST> 1.288609e+001
<MIXTURE> 2 5.000000e-001
<MEAN> 2
 -5.000000e+002 -5.000000e+002
<VARIANCE> 2
 1.000000e+002 1.000000e+002
<GCONST> 1.288609e+001
~s "p_s21"
<NUMMIXES> 2
<MIXTURE> 1 5.000000e-001
<MEAN> 2
 -5.000000e+002 -5.000000e+002
<VARIANCE> 2
 1.000000e+002 1.000000e+002
<GCONST> 1.288609e+001
<MIXTURE> 2 5.000000e-001
<MEAN> 2
 -5.000000e+002 -5.000000e+002
<VARIANCE> 2
 1.000000e+002 1.000000e+002
<GCONST> 1.288609e+001
~s "p_s31"
<NUMMIXES> 2
<MIXTURE> 1 5.165153e-001
<MEAN> 2
 3.007429e+002 1.745368e+001
<VARIANCE> 2
 1.000000e+002 1.000000e+002
<GCONST> 1.288609e+001
<MIXTURE> 2 4.834847e-001
<MEAN> 2
 2.955031e+002 1.728356e+001
<VARIANCE> 2
 1.424270e+002 1.000000e+002
<GCONST> 1.323975e+001
~s "p_s41"
<NUMMIXES> 2
<MIXTURE> 1 5.000000e-001
<MEAN> 2
 -5.000000e+002 -5.000000e+002
<VARIANCE> 2
 1.000000e+002 1.000000e+002
<GCONST> 1.288609e+001
<MIXTURE> 2 5.000000e-001
<MEAN> 2
 -5.000000e+002 -5.000000e+002
<VARIANCE> 2
 1.000000e+002 1.000000e+002
<GCONST> 1.288609e+001
~s "f_s21"
<NUMMIXES> 2
<MIXTURE> 1 5.000000e-001
<MEAN> 2
 -5.000000e+002 -5.000000e+002
<VARIANCE> 2
 1.000000e+002 1.000000e+002
<GCONST> 1.288609e+001
<MIXTURE> 2 5.000000e-001
<MEAN> 2
 -5.000000e+002 -5.000000e+002
<VARIANCE> 2
 1.000000e+002 1.000000e+002
<GCONST> 1.288609e+001
~s "f_s31"
<NUMMIXES> 2
<MIXTURE> 1 7.119975e-001
<MEAN> 2
 1.304077e+002 6.494949e+001
<VARIANCE> 2
 1.559983e+002 1.000000e+002
<GCONST> 1.333077e+001
<MIXTURE> 2 2.880023e-001
<MEAN> 2
 1.136566e+002 3.778135e+001
<VARIANCE> 2
 1.462965e+002 7.901239e+002
<GCONST> 1.533358e+001
~s "f_s41"
<NUMMIXES> 2
<MIXTURE> 1 5.000000e-001
<MEAN> 2
 -5.000000e+002 -5.000000e+002
<VARIANCE> 2
 1.000000e+002 1.000000e+002
<GCONST> 1.288609e+001
<MIXTURE> 2 5.000000e-001
<MEAN> 2
 -5.000000e+002 -5.000000e+002
<VARIANCE> 2
 1.000000e+002 1.000000e+002
<GCONST> 1.288609e+001
~s "sil_s21"
<NUMMIXES> 2
<MIXTURE> 1 5.000000e-001
<MEAN> 2
 -5.000000e+002 -5.000000e+002
<VARIANCE> 2
 1.000000e+002 1.000000e+002
<GCONST> 1.288609e+001
<MIXTURE> 2 5.000000e-001
<MEAN> 2
 -5.000000e+002 -5.000000e+002
<VARIANCE> 2
 1.000000e+002 1.000000e+002
<GCONST> 1.288609e+001
~s "sil_s31"
<NUMMIXES> 2
<MIXTURE> 1 5.000000e-001
<MEAN> 2
 -1.000000e+003 -1.000000e+003
<VARIANCE> 2
 1.000000e+002 1.000000e+002
<GCONST> 1.288609e+001
<MIXTURE> 2 5.000000e-001
<MEAN> 2
 -1.000000e+003 -1.000000e+003
<VARIANCE> 2
 1.000000e+002 1.000000e+002
<GCONST> 1.288609e+001
~s "sil_s41"
<NUMMIXES> 2
<MIXTURE> 1 5.000000e-001
<MEAN> 2
 -5.000000e+002 -5.000000e+002
<VARIANCE> 2
 1.000000e+002 1.000000e+002
<GCONST> 1.288609e+001
<MIXTURE> 2 5.000000e-001
<MEAN> 2
 -5.000000e+002 -5.000000e+002
<VARIANCE> 2
 1.000000e+002 1.000000e+002
<GCONST> 1.288609e+001
~s "s_s21"
<NUMMIXES> 2
<MIXTURE> 1 5.000000e-001
<MEAN> 2
 -5.000000e+002 -5.000000e+002
<VARIANCE> 2
 1.000000e+002 1.000000e+002
<GCONST> 1.288609e+001
<MIXTURE> 2 5.000000e-001
<MEAN> 2
 -5.000000e+002 -5.000000e+002
<VARIANCE> 2
 1.000000e+002 1.000000e+002
<GCONST> 1.288609e+001
~s "s_s31"
<NUMMIXES> 2
<MIXTURE> 1 4.722474e-001
<MEAN> 2
 8.683314e+001 5.990050e+001
<VARIANCE> 2
 2.994236e+002 2.324291e+002
<GCONST> 1.482620e+001
<MIXTURE> 2 5.277524e-001
<MEAN> 2
 8.420055e+001 6.044782e+001
<VARIANCE> 2
 1.104140e+002 1.000000e+002
<GCONST> 1.298516e+001
~s "s_s41"
<NUMMIXES> 2
<MIXTURE> 1 5.000000e-001
<MEAN> 2
 -5.000000e+002 -5.000000e+002
<VARIANCE> 2
 1.000000e+002 1.000000e+002
<GCONST> 1.288609e+001
<MIXTURE> 2 5.000000e-001
<MEAN> 2
 -5.000000e+002 -5.000000e+002
<VARIANCE> 2
 1.000000e+002 1.000000e+002
<GCONST> 1.288609e+001
~s "i_s21"
<NUMMIXES> 2
<MIXTURE> 1 5.000000e-001
<MEAN> 2
 -5.000000e+002 -5.000000e+002
<VARIANCE> 2
 1.000000e+002 1.000000e+002
<GCONST> 1.288609e+001
<MIXTURE> 2 5.000000e-001
<MEAN> 2
 -5.000000e+002 -5.000000e+002
<VARIANCE> 2
 1.000000e+002 1.000000e+002
<GCONST> 1.288609e+001
~s "i_s31"
<NUMMIXES> 2
<MIXTURE> 1 4.285575e-001
<MEAN> 2
 2.405090e+002 1.876678e+001
<VARIANCE> 2
 1.000177e+002 3.391716e+002
<GCONST> 1.410761e+001
<MIXTURE> 2 5.714427e-001
<MEAN> 2
 2.339729e+002 1.345910e+001
<VARIANCE> 2
 4.519674e+002 1.000000e+002
<GCONST> 1.439453e+001
~s "i_s41"
<NUMMIXES> 2
<MIXTURE> 1 5.000000e-001
<MEAN> 2
 -5.000000e+002 -5.000000e+002
<VARIANCE> 2
 1.000000e+002 1.000000e+002
<GCONST> 1.288609e+001
<MIXTURE> 2 5.000000e-001
<MEAN> 2
 -5.000000e+002 -5.000000e+002
<VARIANCE> 2
 1.000000e+002 1.000000e+002
<GCONST> 1.288609e+001
~s "dot_s21"
<NUMMIXES> 2
<MIXTURE> 1 5.000000e-001
<MEAN> 2
 -4.940000e+002 -4.920000e+002
<VARIANCE> 2
 9.000000e+002 1.600000e+003
<GCONST> 1.785591e+001
<MIXTURE> 2 5.000000e-001
<MEAN> 2
 -5.060000e+002 -5.080000e+002
<VARIANCE> 2
 9.000000e+002 1.600000e+003
<GCONST> 1.785591e+001
~s "dot_s31"
<NUMMIXES> 2
<MIXTURE> 1 5.000000e-001
<MEAN> 2
 2.400000e+001 7.800000e+001
<VARIANCE> 2
 9.000000e+002 1.600000e+003
<GCONST> 1.785591e+001
<MIXTURE> 2 5.000000e-001
<MEAN> 2
 1.200000e+001 6.200000e+001
<VARIANCE> 2
 9.000000e+002 1.600000e+003
<GCONST> 1.785591e+001
~s "dot_s41"
<NUMMIXES> 2
<MIXTURE> 1 5.000000e-001
<MEAN> 2
 -4.940000e+002 -4.920000e+002
<VARIANCE> 2
 9.000000e+002 1.600000e+003
<GCONST> 1.785591e+001
<MIXTURE> 2 5.000000e-001
<MEAN> 2
 -5.060000e+002 -5.080000e+002
<VARIANCE> 2
 9.000000e+002 1.600000e+003
<GCONST> 1.785591e+001
~s "v_s21"
<NUMMIXES> 2
<MIXTURE> 1 5.000000e-001
<MEAN> 2
 -5.000000e+002 -5.000000e+002
<VARIANCE> 2
 1.000000e+002 1.000000e+002
<GCONST> 1.288609e+001
<MIXTURE> 2 5.000000e-001
<MEAN> 2
 -5.000000e+002 -5.000000e+002
<VARIANCE> 2
 1.000000e+002 1.000000e+002
<GCONST> 1.288609e+001
~s "v_s31"
<NUMMIXES> 2
<MIXTURE> 1 5.205603e-001
<MEAN> 2
 1.784620e+002 9.971183e+001
<VARIANCE> 2
 1.000000e+002 1.530923e+002
<GCONST> 1.331196e+001
<MIXTURE> 2 4.794398e-001
<MEAN> 2
 1.745277e+002 9.838512e+001
<VARIANCE> 2
 1.887572e+002 1.494748e+002
<GCONST> 1.392334e+001
~s "v_s41"
<NUMMIXES> 2
<MIXTURE> 1 5.000000e-001
<MEAN> 2
 -5.000000e+002 -5.000000e+002
<VARIANCE> 2
 1.000000e+002 1.000000e+002
<GCONST> 1.288609e+001
<MIXTURE> 2 5.000000e-001
<MEAN> 2
 -5.000000e+002 -5.000000e+002
<VARIANCE> 2
 1.000000e+002 1.000000e+002
<GCONST> 1.288609e+001
~s "l_s21"
<NUMMIXES> 2
<MIXTURE> 1 5.000000e-001
<MEAN> 2
 -5.000000e+002 -5.000000e+002
<VARIANCE> 2
 1.000000e+002 1.000000e+002
<GCONST> 1.288609e+001
<MIXTURE> 2 5.000000e-001
<MEAN> 2
 -5.000000e+002 -5.000000e+002
<VARIANCE> 2
 1.000000e+002 1.000000e+002
<GCONST> 1.288609e+001
~s "l_s31"
<NUMMIXES> 2
<MIXTURE> 1 6.334625e-001
<MEAN> 2
 2.641780e+002 6.197240e+001
<VARIANCE> 2
 1.000000e+002 1.000000e+002
<GCONST> 1.288609e+001
<MIXTURE> 2 3.665377e-001
<MEAN> 2
 2.571612e+002 5.745339e+001
<VARIANCE> 2
 3.146093e+002 4.170127e+002
<GCONST> 1.546020e+001
~s "l_s41"
<NUMMIXES> 2
<MIXTURE> 1 5.000000e-001
<MEAN> 2
 -5.000000e+002 -5.000000e+002
<VARIANCE> 2
 1.000000e+002 1.000000e+002
<GCONST> 1.288609e+001
<MIXTURE> 2 5.000000e-001
<MEAN> 2
 -5.000000e+002 -5.000000e+002
<VARIANCE> 2
 1.000000e+002 1.000000e+002
<GCONST> 1.288609e+001
~s "y_s21"
<NUMMIXES> 2
<MIXTURE> 1 5.000000e-001
<MEAN> 2
 -5.000000e+002 -5.000000e+002
<VARIANCE> 2
 1.000000e+002 1.000000e+002
<GCONST> 1.288609e+001
<MIXTURE> 2 5.000000e-001
<MEAN> 2
 -5.000000e+002 -5.000000e+002
<VARIANCE> 2
 1.000000e+002 1.000000e+002
<GCONST> 1.288609e+001
~s "y_s31"
<NUMMIXES> 2
<MIXTURE> 1 5.020063e-001
<MEAN> 2
 1.897206e+002 1.547496e+001
<VARIANCE> 2
 1.000000e+002 1.000000e+002
<GCONST> 1.288609e+001
<MIXTURE> 2 4.979935e-001
<MEAN> 2
 1.836078e+002 1.233598e+001
<VARIANCE> 2
 1.000000e+002 1.000000e+002
<GCONST> 1.288609e+001
~s "y_s41"
<NUMMIXES> 2
<MIXTURE> 1 5.000000e-001
<MEAN> 2
 -5.000000e+002 -5.000000e+002
<VARIANCE> 2
 1.000000e+002 1.000000e+002
<GCONST> 1.288609e+001
<MIXTURE> 2 5.000000e-001
<MEAN> 2
 -5.000000e+002 -5.000000e+002
<VARIANCE> 2
 1.000000e+002 1.000000e+002
<GCONST> 1.288609e+001
~s "{_s21"
<NUMMIXES> 2
<MIXTURE> 1 5.000000e-001
<MEAN> 2
 -5.000000e+002 -5.000000e+002
<VARIANCE> 2
 1.000000e+002 1.000000e+002
<GCONST> 1.288609e+001
<MIXTURE> 2 5.000000e-001
<MEAN> 2
 -5.000000e+002 -5.000000e+002
<VARIANCE> 2
 1.000000e+002 1.000000e+002
<GCONST> 1.288609e+001
~s "{_s31"
<NUMMIXES> 2
<MIXTURE> 1 4.562270e-001
<MEAN> 2
 2.783333e+002 6.400000e+001
<VARIANCE> 2
 1.000000e+002 1.000000e+002
<GCONST> 1.288609e+001
<MIXTURE> 2 5.437730e-001
<MEAN> 2
 2.783333e+002 6.400000e+001
<VARIANCE> 2
 1.000000e+002 1.000000e+002
<GCONST> 1.288609e+001
~s "{_s41"
<NUMMIXES> 2
<MIXTURE> 1 5.000000e-001
<MEAN> 2
 -5.000000e+002 -5.000000e+002
<VARIANCE> 2
 1.000000e+002 1.000000e+002
<GCONST> 1.288609e+001
<MIXTURE> 2 5.000000e-001
<MEAN> 2
 -5.000000e+002 -5.000000e+002
<VARIANCE> 2
 1.000000e+002 1.000000e+002
<GCONST> 1.288609e+001
~s "b_s21"
<NUMMIXES> 2
<MIXTURE> 1 5.000000e-001
<MEAN> 2
 -5.000000e+002 -5.000000e+002
<VARIANCE> 2
 1.000000e+002 1.000000e+002
<GCONST> 1.288609e+001
<MIXTURE> 2 5.000000e-001
<MEAN> 2
 -5.000000e+002 -5.000000e+002
<VARIANCE> 2
 1.000000e+002 1.000000e+002
<GCONST> 1.288609e+001
~s "b_s31"
<NUMMIXES> 2
<MIXTURE> 1 4.999698e-001
<MEAN> 2
 1.966112e+002 1.037009e+002
<VARIANCE> 2
 1.000000e+002 2.248081e+002
<GCONST> 1.369617e+001
<MIXTURE> 2 5.000302e-001
<MEAN> 2
 1.969540e+002 1.029079e+002
<VARIANCE> 2
 1.000000e+002 2.242285e+002
<GCONST> 1.369359e+001
~s "b_s41"
<NUMMIXES> 2
<MIXTURE> 1 5.000000e-001
<MEAN> 2
 -5.000000e+002 -5.000000e+002
<VARIANCE> 2
 1.000000e+002 1.000000e+002
<GCONST> 1.288609e+001
<MIXTURE> 2 5.000000e-001
<MEAN> 2
 -5.000000e+002 -5.000000e+002
<VARIANCE> 2
 1.000000e+002 1.000000e+002
<GCONST> 1.288609e+001
~s "o_s21"
<NUMMIXES> 2
<MIXTURE> 1 5.000000e-001
<MEAN> 2
 -5.000000e+002 -5.000000e+002
<VARIANCE> 2
 1.000000e+002 1.000000e+002
<GCONST> 1.288609e+001
<MIXTURE> 2 5.000000e-001
<MEAN> 2
 -5.000000e+002 -5.000000e+002
<VARIANCE> 2
 1.000000e+002 1.000000e+002
<GCONST> 1.288609e+001
~s "o_s31"
<NUMMIXES> 2
<MIXTURE> 1 4.985157e-001
<MEAN> 2
 2.633495e+002 1.668514e+001
<VARIANCE> 2
 1.186413e+002 1.146215e+002
<GCONST> 1.319349e+001
<MIXTURE> 2 5.014843e-001
<MEAN> 2
 2.591936e+002 1.365395e+001
<VARIANCE> 2
 2.340968e+002 1.000000e+002
<GCONST> 1.373666e+001
~s "o_s41"
<NUMMIXES> 2
<MIXTURE> 1 5.000000e-001
<MEAN> 2
 -5.000000e+002 -5.000000e+002
<VARIANCE> 2
 1.000000e+002 1.000000e+002
<GCONST> 1.288609e+001
<MIXTURE> 2 5.000000e-001
<MEAN> 2
 -5.000000e+002 -5.000000e+002
<VARIANCE> 2
 1.000000e+002 1.000000e+002
<GCONST> 1.288609e+001
~s "e_s21"
<NUMMIXES> 2
<MIXTURE> 1 5.000000e-001
<MEAN> 2
 -5.000000e+002 -5.000000e+002
<VARIANCE> 2
 1.000000e+002 1.000000e+002
<GCONST> 1.288609e+001
<MIXTURE> 2 5.000000e-001
<MEAN> 2
 -5.000000e+002 -5.000000e+002
<VARIANCE> 2
 1.000000e+002 1.000000e+002
<GCONST> 1.288609e+001
~s "e_s31"
<NUMMIXES> 2
<MIXTURE> 1 4.951918e-001
<MEAN> 2
 1.162378e+002 1.783113e+001
<VARIANCE> 2
 1.769447e+002 1.012623e+002
<GCONST> 1.346931e+001
<MIXTURE> 2 5.048081e-001
<MEAN> 2
 1.100118e+002 1.393402e+001
<VARIANCE> 2
 1.092881e+002 1.000000e+002
<GCONST> 1.297491e+001
~s "e_s41"
<NUMMIXES> 2
<MIXTURE> 1 5.000000e-001
<MEAN> 2
 -5.000000e+002 -5.000000e+002
<VARIANCE> 2
 1.000000e+002 1.000000e+002
<GCONST> 1.288609e+001
<MIXTURE> 2 5.000000e-001
<MEAN> 2
 -5.000000e+002 -5.000000e+002
<VARIANCE> 2
 1.000000e+002 1.000000e+002
<GCONST> 1.288609e+001
~s "r_s21"
<NUMMIXES> 2
<MIXTURE> 1 5.000000e-001
<MEAN> 2
 -5.000000e+002 -5.000000e+002
<VARIANCE> 2
 1.000000e+002 1.000000e+002
<GCONST> 1.288609e+001
<MIXTURE> 2 5.000000e-001
<MEAN> 2
 -5.000000e+002 -5.000000e+002
<VARIANCE> 2
 1.000000e+002 1.000000e+002
<GCONST> 1.288609e+001
~s "r_s31"
<NUMMIXES> 2
<MIXTURE> 1 4.510170e-001
<MEAN> 2
 1.411130e+002 1.724249e+001
<VARIANCE> 2
 5.650793e+002 1.000000e+002
<GCONST> 1.461789e+001
<MIXTURE> 2 5.489829e-001
<MEAN> 2
 1.393739e+002 1.570908e+001
<VARIANCE> 2
 1.267095e+002 1.000000e+002
<GCONST> 1.312282e+001
~s "r_s41"
<NUMMIXES> 2
<MIXTURE> 1 5.000000e-001
<MEAN> 2
 -5.000000e+002 -5.000000e+002
<VARIANCE> 2
 1.000000e+002 1.000000e+002
<GCONST> 1.288609e+001
<MIXTURE> 2 5.000000e-001
<MEAN> 2
 -5.000000e+002 -5.000000e+002
<VARIANCE> 2
 1.000000e+002 1.000000e+002
<GCONST> 1.288609e+001
~s "spc_s21"
<NUMMIXES> 2
<MIXTURE> 1 5.000000e-001
<MEAN> 2
 -5.000000e+002 -5.000000e+002
<VARIANCE> 2
 1.000000e+002 1.000000e+002
<GCONST> 1.288609e+001
<MIXTURE> 2 5.000000e-001
<MEAN> 2
 -5.000000e+002 -5.000000e+002
<VARIANCE> 2
 1.000000e+002 1.000000e+002
<GCONST> 1.288609e+001
~s "spc_s31"
<NUMMIXES> 2
<MIXTURE> 1 5.180194e-001
<MEAN> 2
 4.950347e+001 1.102637e+002
<VARIANCE> 2
 1.887447e+002 1.013034e+002
<GCONST> 1.353427e+001
<MIXTURE> 2 4.819807e-001
<MEAN> 2
 4.837568e+001 1.071508e+002
<VARIANCE> 2
 1.988364e+002 2.232957e+002
<GCONST> 1.437673e+001
~s "spc_s41"
<NUMMIXES> 2
<MIXTURE> 1 5.000000e-001
<MEAN> 2
 -5.000000e+002 -5.000000e+002
<VARIANCE> 2
 1.000000e+002 1.000000e+002
<GCONST> 1.288609e+001
<MIXTURE> 2 5.000000e-001
<MEAN> 2
 -5.000000e+002 -5.000000e+002
<VARIANCE> 2
 1.000000e+002 1.000000e+002
<GCONST> 1.288609e+001
~s "h_s21"
<NUMMIXES> 2
<MIXTURE> 1 5.000000e-001
<MEAN> 2
 -5.000000e+002 -5.000000e+002
<VARIANCE> 2
 1.000000e+002 1.000000e+002
<GCONST> 1.288609e+001
<MIXTURE> 2 5.000000e-001
<MEAN> 2
 -5.000000e+002 -5.000000e+002
<VARIANCE> 2
 1.000000e+002 1.000000e+002
<GCONST> 1.288609e+001
~s "h_s31"
<NUMMIXES> 2
<MIXTURE> 1 5.137829e-001
<MEAN> 2
 1.965425e+002 5.643475e+001
<VARIANCE> 2
 1.000000e+002 1.000000e+002
<GCONST> 1.288609e+001
<MIXTURE> 2 4.862171e-001
<MEAN> 2
 1.909394e+002 5.641314e+001
<VARIANCE> 2
 1.687800e+002 1.000000e+002
<GCONST> 1.340952e+001
~s "h_s41"
<NUMMIXES> 2
<MIXTURE> 1 5.000000e-001
<MEAN> 2
 -5.000000e+002 -5.000000e+002
<VARIANCE> 2
 1.000000e+002 1.000000e+002
<GCONST> 1.288609e+001
<MIXTURE> 2 5.000000e-001
<MEAN> 2
 -5.000000e+002 -5.000000e+002
<VARIANCE> 2
 1.000000e+002 1.000000e+002
<GCONST> 1.288609e+001
~s "u_s21"
<NUMMIXES> 2
<MIXTURE> 1 5.000000e-001
<MEAN> 2
 -5.000000e+002 -5.000000e+002
<VARIANCE> 2
 1.000000e+002 1.000000e+002
<GCONST> 1.288609e+001
<MIXTURE> 2 5.000000e-001
<MEAN> 2
 -5.000000e+002 -5.000000e+002
<VARIANCE> 2
 1.000000e+002 1.000000e+002
<GCONST> 1.288609e+001
~s "u_s31"
<NUMMIXES> 2
<MIXTURE> 1 4.688436e-001
<MEAN> 2
 2.178171e+002 2.067988e+001
<VARIANCE> 2
 1.900578e+002 1.674160e+002
<GCONST> 1.404356e+001
<MIXTURE> 2 5.311564e-001
<MEAN> 2
 2.135551e+002 1.488144e+001
<VARIANCE> 2
 1.637616e+002 1.000000e+002
<GCONST> 1.337934e+001
~s "u_s41"
<NUMMIXES> 2
<MIXTURE> 1 5.000000e-001
<MEAN> 2
 -5.000000e+002 -5.000000e+002
<VARIANCE> 2
 1.000000e+002 1.000000e+002
<GCONST> 1.288609e+001
<MIXTURE> 2 5.000000e-001
<MEAN> 2
 -5.000000e+002 -5.000000e+002
<VARIANCE> 2
 1.000000e+002 1.000000e+002
<GCONST> 1.288609e+001
~h "a"
<BEGINHMM>
<NUMSTATES> 5
<STATE> 2
~s "a_s21"
<STATE> 3
~s "a_s31"
<STATE> 4
~s "a_s41"
~t "T_a"
<ENDHMM>
~h "b"
<BEGINHMM>
<NUMSTATES> 5
<STATE> 2
~s "b_s21"
<STATE> 3
~s "b_s31"
<STATE> 4
~s "b_s41"
~t "T_b"
<ENDHMM>
~h "c"
<BEGINHMM>
<NUMSTATES> 5
<STATE> 2
~s "c_s21"
<STATE> 3
~s "c_s31"
<STATE> 4
~s "c_s41"
~t "T_c"
<ENDHMM>
~h "d"
<BEGINHMM>
<NUMSTATES> 5
<STATE> 2
~s "d_s21"
<STATE> 3
~s "d_s31"
<STATE> 4
~s "d_s41"
~t "T_d"
<ENDHMM>
~h "e"
<BEGINHMM>
<NUMSTATES> 5
<STATE> 2
~s "e_s21"
<STATE> 3
~s "e_s31"
<STATE> 4
~s "e_s41"
~t "T_e"
<ENDHMM>
~h "f"
<BEGINHMM>
<NUMSTATES> 5
<STATE> 2
~s "f_s21"
<STATE> 3
~s "f_s31"
<STATE> 4
~s "f_s41"
~t "T_f"
<ENDHMM>
~h "g"
<BEGINHMM>
<NUMSTATES> 5
<STATE> 2
~s "g_s21"
<STATE> 3
~s "g_s31"
<STATE> 4
~s "g_s41"
~t "T_g"
<ENDHMM>
~h "h"
<BEGINHMM>
<NUMSTATES> 5
<STATE> 2
~s "h_s21"
<STATE> 3
~s "h_s31"
<STATE> 4
~s "h_s41"
~t "T_h"
<ENDHMM>
~h "i"
<BEGINHMM>
<NUMSTATES> 5
<STATE> 2
~s "i_s21"
<STATE> 3
~s "i_s31"
<STATE> 4
~s "i_s41"
~t "T_i"
<ENDHMM>
~h "j"
<BEGINHMM>
<NUMSTATES> 5
<STATE> 2
~s "j_s21"
<STATE> 3
~s "j_s31"
<STATE> 4
~s "j_s41"
~t "T_j"
<ENDHMM>
~h "k"
<BEGINHMM>
<NUMSTATES> 5
<STATE> 2
~s "k_s21"
<STATE> 3
~s "k_s31"
<STATE> 4
~s "k_s41"
~t "T_k"
<ENDHMM>
~h "l"
<BEGINHMM>
<NUMSTATES> 5
<STATE> 2
~s "l_s21"
<STATE> 3
~s "l_s31"
<STATE> 4
~s "l_s41"
~t "T_l"
<ENDHMM>
~h "m"
<BEGINHMM>
<NUMSTATES> 5
<STATE> 2
~s "m_s21"
<STATE> 3
~s "m_s31"
<STATE> 4
~s "m_s41"
~t "T_m"
<ENDHMM>
~h "n"
<BEGINHMM>
<NUMSTATES> 5
<STATE> 2
~s "n_s21"
<STATE> 3
~s "n_s31"
<STATE> 4
~s "n_s41"
~t "T_n"
<ENDHMM>
~h "o"
<BEGINHMM>
<NUMSTATES> 5
<STATE> 2
~s "o_s21"
<STATE> 3
~s "o_s31"
<STATE> 4
~s "o_s41"
~t "T_o"
<ENDHMM>
~h "p"
<BEGINHMM>
<NUMSTATES> 5
<STATE> 2
~s "p_s21"
<STATE> 3
~s "p_s31"
<STATE> 4
~s "p_s41"
~t "T_p"
<ENDHMM>
~h "q"
<BEGINHMM>
<NUMSTATES> 5
<STATE> 2
~s "q_s21"
<STATE> 3
~s "q_s31"
<STATE> 4
~s "q_s41"
~t "T_q"
<ENDHMM>
~h "r"
<BEGINHMM>
<NUMSTATES> 5
<STATE> 2
~s "r_s21"
<STATE> 3
~s "r_s31"
<STATE> 4
~s "r_s41"
~t "T_r"
<ENDHMM>
~h "s"
<BEGINHMM>
<NUMSTATES> 5
<STATE> 2
~s "s_s21"
<STATE> 3
~s "s_s31"
<STATE> 4
~s "s_s41"
~t "T_s"
<ENDHMM>
~h "t"
<BEGINHMM>
<NUMSTATES> 5
<STATE> 2
~s "t_s21"
<STATE> 3
~s "t_s31"
<STATE> 4
~s "t_s41"
~t "T_t"
<ENDHMM>
~h "u"
<BEGINHMM>
<NUMSTATES> 5
<STATE> 2
~s "u_s21"
<STATE> 3
~s "u_s31"
<STATE> 4
~s "u_s41"
~t "T_u"
<ENDHMM>
~h "v"
<BEGINHMM>
<NUMSTATES> 5
<STATE> 2
~s "v_s21"
<STATE> 3
~s "v_s31"
<STATE> 4
~s "v_s41"
~t "T_v"
<ENDHMM>
~h "w"
<BEGINHMM>
<NUMSTATES> 5
<STATE> 2
~s "w_s21"
<STATE> 3
~s "w_s31"
<STATE> 4
~s "w_s41"
~t "T_w"
<ENDHMM>
~h "x"
<BEGINHMM>
<NUMSTATES> 5
<STATE> 2
~s "x_s21"
<STATE> 3
~s "x_s31"
<STATE> 4
~s "x_s41"
~t "T_x"
<ENDHMM>
~h "y"
<BEGINHMM>
<NUMSTATES> 5
<STATE> 2
~s "y_s21"
<STATE> 3
~s "y_s31"
<STATE> 4
~s "y_s41"
~t "T_y"
<ENDHMM>
~h "z"
<BEGINHMM>
<NUMSTATES> 5
<STATE> 2
~s "z_s21"
<STATE> 3
~s "z_s31"
<STATE> 4
~s "z_s41"
~t "T_z"
<ENDHMM>
~h "{"
<BEGINHMM>
<NUMSTATES> 5
<STATE> 2
~s "{_s21"
<STATE> 3
~s "{_s31"
<STATE> 4
~s "{_s41"
~t "T_{"
<ENDHMM>
~h "dot"
<BEGINHMM>
<NUMSTATES> 5
<STATE> 2
~s "dot_s21"
<STATE> 3
~s "dot_s31"
<STATE> 4
~s "dot_s41"
~t "T_dot"
<ENDHMM>
~h "sil"
<BEGINHMM>
<NUMSTATES> 5
<STATE> 2
~s "sil_s21"
<STATE> 3
~s "sil_s31"
<STATE> 4
~s "sil_s41"
~t "T_sil"
<ENDHMM>
~h "spc"
<BEGINHMM>
<NUMSTATES> 5
<STATE> 2
~s "spc_s21"
<STATE> 3
~s "spc_s31"
<STATE> 4
~s "spc_s41"
~t "T_spc"
<ENDHMM>
